7 100
[SCAN_ 0.002688 0.002856 0.004234 0.004430 0.001895 0.001283 -0.003394 -0.003895 -0.004739 0.004673 -0.002317 0.001536 -0.001833 0.004018 -0.002004 -0.000202 0.002227 0.003937 0.002456 0.001963 -0.004150 0.003676 -0.001178 -0.002011 -0.001280 -0.004295 0.000206 0.004772 0.002059 0.002363 -0.004359 0.001734 -0.003519 -0.002698 -0.000474 0.003516 -0.003065 -0.002400 0.003187 0.001031 -0.004932 -0.001065 -0.003127 0.004545 -0.001151 -0.000010 0.002470 0.002934 -0.000702 0.002201 0.001649 0.002764 0.002177 0.004537 0.001492 0.001770 0.001481 -0.001293 -0.001616 0.000845 0.002972 -0.002576 -0.000124 -0.002029 0.002812 -0.004323 0.003491 0.003995 -0.001242 0.000530 -0.004917 0.000992 0.004067 -0.004607 0.000297 0.000205 0.003300 0.003494 -0.002594 -0.004092 0.001195 -0.004159 -0.001392 0.000577 0.001201 -0.004866 -0.002254 -0.004404 0.003709 -0.002456 0.002353 0.003732 0.004200 0.004188 0.000035 0.002540 -0.003727 -0.003934 0.002316 -0.004955
Thanks_ -0.000755 -0.000328 0.003584 0.004003 0.002531 -0.003651 0.002734 0.003619 -0.001838 -0.004820 -0.002387 -0.003843 0.002682 0.001438 0.002321 -0.000391 0.003181 -0.002567 0.004364 -0.004297 0.001037 -0.003145 -0.000040 -0.004610 -0.004037 -0.002532 0.003899 -0.004601 -0.002169 -0.004860 0.000332 -0.004790 -0.000692 -0.001565 -0.000161 0.003111 -0.000060 -0.001344 0.004136 0.003994 -0.001640 -0.002133 -0.001150 -0.000674 -0.003958 0.000797 -0.004141 -0.003334 -0.002847 0.000505 0.000774 -0.003096 -0.004400 -0.004209 -0.001938 0.001375 0.001269 0.002058 0.002897 -0.001871 -0.003527 -0.003593 0.004042 0.000755 0.001231 -0.002122 -0.000183 -0.003760 -0.000867 -0.001697 -0.002603 0.000621 -0.004139 -0.001928 0.003341 0.004314 0.001022 -0.002504 0.000381 0.004446 -0.004533 -0.004529 0.002420 0.000156 0.001766 0.004093 -0.003964 0.001799 -0.002663 0.000528 0.001437 0.004183 -0.002016 -0.004677 0.001716 0.000990 -0.004415 0.000574 -0.000816 -0.003619
I_ -0.001683 0.004818 -0.002219 -0.004816 -0.004347 -0.002930 -0.004402 0.001881 -0.002404 0.004774 0.001472 0.003395 -0.003575 -0.000407 -0.004528 -0.000235 0.004043 -0.001856 0.001403 0.002835 -0.004122 -0.000462 0.002170 0.002984 0.003493 0.000489 -0.002062 0.004519 -0.004062 0.000651 -0.003577 -0.003306 0.002788 -0.001375 -0.001493 -0.003368 -0.002661 -0.002077 0.002965 -0.002555 0.000519 0.004162 0.004168 -0.004370 -0.003004 0.001055 0.002003 -0.004979 0.002001 -0.004056 -0.000320 -0.003563 -0.002341 0.000873 0.001174 -0.000084 -0.003794 -0.002784 -0.001854 -0.000592 0.002184 -0.000811 0.004825 0.000598 -0.004086 0.001623 -0.002380 0.001668 0.003652 0.003524 0.002875 0.000501 0.002686 0.003984 0.002153 -0.000218 -0.004267 -0.000609 0.004508 0.003252 -0.000017 -0.000797 0.000181 -0.000381 -0.002543 0.000926 -0.000943 -0.003783 -0.003959 -0.003135 -0.001759 -0.004858 -0.000925 0.003972 0.001025 0.001347 0.004218 0.003101 -0.001279 -0.004189
it_ 0.001205 0.002098 0.003391 -0.001697 -0.000650 0.004911 -0.003739 0.001062 -0.004161 -0.004772 -0.002931 -0.000824 0.001192 0.002656 0.003852 -0.002540 -0.000773 0.004302 -0.000385 -0.003130 0.004621 -0.002324 -0.004025 0.004287 -0.002396 -0.001552 -0.003180 0.004497 0.001016 -0.001075 -0.003255 -0.000621 -0.004307 -0.000501 0.003199 0.003323 0.001767 0.001542 -0.001845 0.000670 0.004045 0.003680 -0.002386 -0.002971 -0.001586 -0.003508 0.000287 -0.003160 -0.003159 -0.003320 0.000304 0.000722 -0.001453 0.003062 0.004858 -0.003432 -0.004647 0.001629 0.004015 0.000087 0.003937 -0.002285 0.004180 0.002986 -0.000098 -0.000125 -0.004391 0.004269 -0.000344 -0.000943 -0.000150 -0.000817 -0.003106 -0.002198 0.001503 0.002821 0.001812 -0.003053 0.002415 0.000759 0.001804 -0.004981 -0.002720 -0.004997 0.003699 -0.002268 0.001324 -0.002244 0.001354 -0.004215 -0.004998 -0.000938 0.002487 0.000418 -0.001979 0.002677 -0.003558 0.001959 -0.004655 0.000897
we_ 0.002336 0.001914 0.000480 -0.001700 0.000506 -0.002416 -0.000392 -0.000259 -0.001266 0.000062 -0.004158 -0.002034 0.003800 -0.004415 -0.003547 -0.002168 -0.003292 0.002813 -0.001074 -0.000425 -0.003525 -0.003028 0.004069 0.002017 0.004765 -0.002034 0.003643 -0.001020 0.004277 -0.002044 -0.000778 -0.001787 -0.004384 -0.003742 -0.001670 -0.004933 -0.001215 0.002738 -0.000986 0.003640 0.004450 0.004936 0.002691 0.003172 0.000456 -0.001985 -0.000436 -0.004991 -0.000118 -0.003351 -0.004335 0.000481 -0.001150 0.003312 -0.002542 -0.004990 -0.003960 -0.003105 0.002558 -0.001496 0.002861 -0.003686 0.001466 0.001057 -0.000041 -0.003806 -0.002296 0.002900 -0.002853 0.001430 0.000734 0.003783 -0.001777 -0.001543 0.001723 0.004969 0.000446 0.000445 0.002646 0.002526 0.004300 -0.001834 0.002331 0.003837 0.002880 0.002905 -0.001098 -0.000519 -0.004873 0.000859 0.004818 -0.000841 0.000282 0.003261 0.000149 0.001845 -0.002335 -0.000805 0.000043 -0.004965
you_ 0.004041 0.004505 -0.000720 -0.001364 0.003348 -0.004743 0.004352 0.000784 -0.003940 0.001092 0.001579 0.002767 -0.000130 0.003591 0.001489 0.001997 0.003890 -0.004199 0.003648 -0.003991 -0.000453 -0.003957 0.001337 -0.003394 0.004029 -0.004796 -0.003102 -0.001962 -0.003197 0.002772 -0.001759 -0.002999 -0.004090 0.000168 0.001736 0.001930 0.000662 -0.001790 -0.000456 -0.003868 -0.003768 0.002193 0.001235 -0.003005 -0.003585 0.002618 0.004259 0.004641 -0.004760 0.003273 -0.003669 0.001471 -0.002185 -0.004446 0.000895 -0.000699 -0.000379 0.004653 -0.001773 0.001338 -0.002361 -0.001181 0.004246 -0.001396 -0.003345 0.000691 0.003407 -0.002451 -0.004670 -0.002610 -0.002648 -0.001422 -0.002434 -0.003989 -0.000181 -0.002261 0.000714 0.004336 -0.003974 -0.004763 0.001152 -0.000589 -0.003379 -0.001172 -0.003266 -0.004483 0.003570 0.001607 -0.002356 0.000786 0.002987 -0.000887 -0.004382 -0.000770 -0.004896 0.001112 -0.003563 -0.001962 -0.004468 0.002514
Frank_ 0.003065 0.002231 0.003630 0.003852 -0.003869 0.001585 0.004231 -0.001490 0.004930 0.002674 0.004532 -0.000170 0.004678 0.002900 0.000735 0.002121 0.003145 0.003031 0.004467 -0.004545 -0.001444 -0.000500 -0.004124 0.004055 0.004741 -0.004242 0.003590 0.001902 -0.000657 -0.003867 -0.003773 -0.003570 0.001084 -0.001974 -0.002382 -0.000215 0.002593 0.002922 0.002453 0.003247 -0.000968 0.000823 0.000786 -0.004054 0.003838 0.000715 -0.003319 0.002142 -0.003362 0.001741 -0.001495 -0.004105 -0.000201 -0.003686 0.000499 0.004949 0.002459 0.002511 -0.003538 0.000077 0.003377 0.001411 -0.004475 -0.001163 -0.000306 -0.001379 0.001503 -0.001035 0.001531 0.000310 0.000675 -0.004278 0.002147 -0.003565 -0.003261 -0.004030 0.002755 -0.004910 -0.000504 0.002874 -0.001340 0.004658 -0.002712 0.003587 -0.001594 0.004224 -0.003299 -0.004826 0.003598 0.002186 -0.004953 0.000665 0.003057 -0.002380 -0.004265 0.004350 -0.003887 0.001508 0.001738 -0.000937
