21 100
it_ 0.020189 -0.088059 0.080455 0.017541 -0.089847 0.143698 -0.011263 -0.064452 -0.045129 0.102583 0.043099 0.054085 -0.032319 0.192530 -0.037499 0.034246 -0.000235 -0.082266 0.034988 0.034035 0.036935 -0.107786 -0.012973 0.027248 -0.049056 -0.059091 0.032960 -0.013050 0.000764 -0.010490 0.057369 -0.054831 -0.018237 0.029833 -0.102463 0.105225 -0.096572 0.036767 -0.172605 0.073917 0.101142 0.076539 0.103815 0.061269 -0.088843 0.010102 -0.029775 -0.015975 0.041134 -0.144415 -0.048544 -0.053076 -0.065700 -0.062956 -0.034838 -0.062976 0.066754 0.048443 0.068306 -0.099303 0.051826 0.000497 0.049973 0.046142 0.022056 -0.063829 -0.129245 0.013002 -0.052774 -0.062076 -0.002437 -0.020739 -0.099464 -0.119126 -0.019680 -0.063320 0.061170 -0.033295 -0.089945 -0.016474 -0.096645 0.015169 -0.037822 0.006251 0.012906 -0.000330 -0.067133 0.026487 -0.011988 -0.090628 -0.088466 0.019055 0.106378 0.025316 -0.048861 -0.025861 0.066024 -0.026382 -0.009157 -0.031535
He_ 0.020589 -0.068178 0.061928 0.011938 -0.073030 0.112931 -0.008604 -0.052874 -0.037467 0.085090 0.034380 0.046092 -0.030160 0.157394 -0.031607 0.020629 0.007009 -0.067105 0.028687 0.029001 0.033555 -0.091937 -0.005059 0.020357 -0.044534 -0.052060 0.030233 -0.009595 -0.006657 -0.012127 0.052378 -0.047670 -0.016445 0.018637 -0.085535 0.085203 -0.084456 0.031886 -0.144926 0.057533 0.082795 0.067163 0.092551 0.050448 -0.069510 0.001453 -0.024683 -0.012899 0.036677 -0.114319 -0.038681 -0.041578 -0.059094 -0.045187 -0.027980 -0.054187 0.047167 0.041358 0.048829 -0.080567 0.039275 0.000198 0.047211 0.036978 0.010521 -0.057667 -0.100976 0.014122 -0.044247 -0.049452 -0.000663 -0.011564 -0.080753 -0.093828 -0.018982 -0.049689 0.043832 -0.024339 -0.073995 -0.014450 -0.081638 0.014457 -0.025145 0.004311 0.007903 -0.009019 -0.058373 0.027214 -0.009245 -0.070440 -0.068819 0.015510 0.080354 0.015464 -0.038330 -0.016296 0.054865 -0.015870 0.000071 -0.022022
he_ 0.023770 -0.106817 0.088088 0.022087 -0.114632 0.172149 -0.009923 -0.075489 -0.053073 0.128626 0.045807 0.061907 -0.031767 0.224179 -0.045296 0.037354 0.003869 -0.102338 0.033352 0.040462 0.040211 -0.135033 -0.011736 0.024494 -0.065797 -0.072007 0.048900 -0.019439 -0.008210 -0.013694 0.068296 -0.065690 -0.030775 0.028319 -0.117203 0.121184 -0.117262 0.036662 -0.208419 0.086354 0.126258 0.098684 0.125129 0.077750 -0.100297 0.010182 -0.039569 -0.025707 0.046144 -0.162994 -0.056218 -0.058835 -0.083285 -0.066662 -0.034472 -0.075573 0.075203 0.056296 0.077034 -0.123107 0.059523 -0.009470 0.059508 0.056610 0.015470 -0.078994 -0.145308 0.015142 -0.066435 -0.078807 -0.010106 -0.020196 -0.115728 -0.141175 -0.031971 -0.073251 0.068484 -0.031078 -0.105098 -0.022122 -0.108691 0.015869 -0.038225 0.003677 0.014725 -0.007076 -0.079743 0.037564 -0.015430 -0.100625 -0.103147 0.027280 0.120229 0.027394 -0.062251 -0.026135 0.079486 -0.027966 -0.005478 -0.029132
It_ 0.024075 -0.109593 0.101551 0.028950 -0.120606 0.180694 -0.017103 -0.082375 -0.059953 0.130537 0.053611 0.068457 -0.038169 0.242960 -0.050546 0.037717 0.004294 -0.108682 0.038793 0.037674 0.043100 -0.134822 -0.013713 0.031740 -0.067324 -0.074546 0.041940 -0.014183 -0.004034 -0.019786 0.070568 -0.069691 -0.025522 0.028143 -0.119756 0.129752 -0.120530 0.047129 -0.216944 0.093959 0.125718 0.100514 0.133424 0.079161 -0.102763 0.004380 -0.038243 -0.024345 0.049004 -0.174486 -0.062427 -0.061083 -0.083197 -0.075514 -0.046209 -0.074763 0.075790 0.064270 0.080075 -0.121996 0.059634 -0.001392 0.066102 0.054388 0.023907 -0.087758 -0.153474 0.011565 -0.063702 -0.078932 -0.011074 -0.020247 -0.128229 -0.145581 -0.026908 -0.083923 0.073464 -0.039886 -0.108267 -0.023104 -0.113625 0.019396 -0.044476 0.006998 0.008964 -0.007609 -0.085262 0.038847 -0.012823 -0.106756 -0.105106 0.020396 0.134565 0.022460 -0.057589 -0.027811 0.082048 -0.024839 -0.006677 -0.032957
they_ 0.032926 -0.130127 0.120947 0.031331 -0.140799 0.216602 -0.013045 -0.103117 -0.077708 0.160663 0.066470 0.084860 -0.046809 0.296793 -0.061784 0.051392 0.009276 -0.129386 0.047527 0.055255 0.056531 -0.166382 -0.014677 0.038332 -0.083138 -0.100209 0.054491 -0.019320 -0.004496 -0.016405 0.092384 -0.080920 -0.033662 0.040271 -0.153932 0.153230 -0.149334 0.048521 -0.260639 0.108969 0.160448 0.126053 0.165108 0.096302 -0.133321 0.005529 -0.051252 -0.026013 0.064599 -0.218029 -0.074797 -0.070619 -0.100054 -0.093164 -0.053487 -0.093872 0.091244 0.079858 0.098555 -0.158253 0.079382 -0.003706 0.078064 0.075346 0.026321 -0.099222 -0.190803 0.020301 -0.081128 -0.104855 -0.005013 -0.027229 -0.151561 -0.178499 -0.036071 -0.101930 0.090721 -0.039230 -0.135600 -0.029136 -0.139916 0.014778 -0.058497 0.008333 0.012844 -0.004321 -0.103406 0.044971 -0.021050 -0.135843 -0.127070 0.028660 0.158873 0.029925 -0.076022 -0.034699 0.104475 -0.037460 -0.013516 -0.042138
she_ 0.016379 -0.067743 0.059774 0.015637 -0.076027 0.112390 -0.012241 -0.054070 -0.039880 0.087460 0.033379 0.040834 -0.029093 0.159280 -0.026921 0.028299 0.000077 -0.072121 0.031405 0.031933 0.030856 -0.089205 -0.005896 0.016485 -0.038370 -0.048890 0.027768 -0.007927 -0.004253 -0.007268 0.044239 -0.045907 -0.021770 0.023376 -0.081404 0.085574 -0.083831 0.029931 -0.144921 0.059904 0.079857 0.064352 0.089611 0.048432 -0.070753 0.002851 -0.022180 -0.013056 0.033390 -0.116379 -0.037262 -0.042515 -0.058890 -0.047000 -0.024124 -0.051510 0.053765 0.044602 0.052317 -0.079024 0.043134 -0.006126 0.038865 0.036683 0.009815 -0.058790 -0.104356 0.011567 -0.048959 -0.050403 -0.000524 -0.010767 -0.085926 -0.093453 -0.014916 -0.049106 0.052862 -0.022043 -0.074357 -0.019295 -0.080824 0.013486 -0.024546 -0.000473 0.013009 -0.003827 -0.057986 0.026299 -0.007857 -0.068234 -0.071468 0.013268 0.085393 0.019652 -0.041473 -0.017827 0.056885 -0.018712 -0.002385 -0.025085
She_ 0.003960 -0.033853 0.024158 0.004626 -0.032640 0.047364 -0.005947 -0.025754 -0.013856 0.033820 0.014280 0.019068 -0.014179 0.075336 -0.016104 0.006889 -0.001011 -0.035630 0.014091 0.014369 0.013910 -0.039534 -0.004387 0.008034 -0.023602 -0.022721 0.010019 -0.000911 -0.002831 -0.001608 0.025239 -0.016577 -0.009363 0.011081 -0.038471 0.040438 -0.038338 0.011590 -0.062859 0.030541 0.038982 0.026279 0.039792 0.025126 -0.035561 0.000084 -0.012746 -0.003508 0.015128 -0.053309 -0.013786 -0.022374 -0.025996 -0.021842 -0.010584 -0.021728 0.019118 0.020936 0.020916 -0.033985 0.015360 -0.005639 0.017920 0.018798 0.009563 -0.027784 -0.042062 0.007674 -0.017561 -0.020410 -0.004370 -0.005459 -0.036832 -0.046386 -0.009557 -0.018781 0.020478 -0.009507 -0.029853 -0.008986 -0.035356 0.008191 -0.012987 0.000005 0.003221 -0.002855 -0.022669 0.011017 -0.008552 -0.034783 -0.031424 0.005730 0.035917 0.010878 -0.017647 -0.009757 0.023562 -0.004469 0.000207 -0.007834
who_ 0.011280 -0.059903 0.062058 0.017473 -0.073096 0.106918 -0.007711 -0.051389 -0.038478 0.080475 0.027734 0.036820 -0.018646 0.145498 -0.030399 0.023674 -0.002154 -0.062859 0.025375 0.026793 0.031245 -0.082277 -0.002230 0.014380 -0.036287 -0.046313 0.023100 -0.008918 -0.006495 -0.012974 0.041096 -0.042206 -0.013278 0.019181 -0.074298 0.078443 -0.072289 0.024643 -0.123719 0.056773 0.078301 0.057210 0.082111 0.050461 -0.067780 0.003684 -0.018852 -0.017447 0.030581 -0.102042 -0.037047 -0.034713 -0.050132 -0.047680 -0.024256 -0.045367 0.041850 0.042187 0.050237 -0.076502 0.041623 0.001242 0.035478 0.033154 0.012848 -0.052541 -0.096569 0.011815 -0.041618 -0.052974 -0.001498 -0.009395 -0.076231 -0.087433 -0.014108 -0.046962 0.046935 -0.021093 -0.061643 -0.017212 -0.074213 0.010647 -0.025661 -0.002282 0.011352 -0.006788 -0.046386 0.020595 -0.007888 -0.065634 -0.058854 0.014414 0.081229 0.018445 -0.038524 -0.016697 0.054238 -0.020344 -0.003382 -0.022146
EUROGEO_ 0.017241 -0.070752 0.059393 0.013738 -0.073125 0.114583 -0.003436 -0.056449 -0.035573 0.082317 0.035193 0.048470 -0.022018 0.160061 -0.035933 0.026972 -0.000025 -0.070284 0.026587 0.031666 0.028894 -0.087862 -0.009425 0.016303 -0.038879 -0.050656 0.030287 -0.007826 0.000962 -0.006935 0.049652 -0.045376 -0.022051 0.021814 -0.079424 0.082993 -0.075128 0.030690 -0.143985 0.056624 0.085133 0.061492 0.092485 0.057546 -0.072424 0.008741 -0.029091 -0.014177 0.038293 -0.117044 -0.041534 -0.039263 -0.053406 -0.046388 -0.027187 -0.052927 0.047900 0.037604 0.054512 -0.078949 0.044535 0.000991 0.039063 0.041067 0.009454 -0.052736 -0.098126 0.009162 -0.048982 -0.057466 -0.005512 -0.013510 -0.080457 -0.091798 -0.023358 -0.054619 0.048616 -0.022803 -0.071096 -0.015447 -0.078945 0.014882 -0.024726 0.005091 0.004959 -0.006083 -0.054665 0.023056 -0.005935 -0.070089 -0.073306 0.021309 0.088380 0.015697 -0.042374 -0.016306 0.054715 -0.019102 -0.000964 -0.019846
the_Internet_ 0.023181 -0.112243 0.097961 0.024072 -0.117735 0.181270 -0.008444 -0.088923 -0.065741 0.140710 0.050453 0.071581 -0.043901 0.250402 -0.044423 0.044902 0.007241 -0.111409 0.037488 0.045003 0.051775 -0.138341 -0.010289 0.033404 -0.069758 -0.085875 0.051867 -0.015515 -0.006334 -0.012244 0.079863 -0.068272 -0.032902 0.031177 -0.131402 0.133354 -0.126825 0.041236 -0.222573 0.091384 0.136859 0.106930 0.140855 0.081976 -0.113410 0.004628 -0.041594 -0.026373 0.059230 -0.180980 -0.067068 -0.063928 -0.090600 -0.080793 -0.039996 -0.079367 0.081076 0.062485 0.077610 -0.131306 0.066255 -0.001283 0.066540 0.059194 0.019190 -0.089034 -0.156369 0.012800 -0.074879 -0.086121 -0.003405 -0.022530 -0.126289 -0.155156 -0.028226 -0.086150 0.077490 -0.034860 -0.116222 -0.028499 -0.125500 0.014664 -0.042910 0.005137 0.017262 -0.002855 -0.084334 0.034696 -0.013532 -0.108743 -0.109729 0.026569 0.137037 0.025027 -0.059158 -0.024305 0.085911 -0.025847 -0.006153 -0.036288
Kramer_ 0.013583 -0.084253 0.070961 0.018426 -0.084853 0.136383 -0.009590 -0.059375 -0.042334 0.100566 0.043083 0.046615 -0.024780 0.179355 -0.034332 0.029207 0.001093 -0.074697 0.027845 0.030627 0.038558 -0.100799 -0.009337 0.018320 -0.046954 -0.060875 0.030606 -0.018008 -0.004971 -0.010656 0.051180 -0.052471 -0.018288 0.019953 -0.093424 0.095944 -0.088511 0.035483 -0.158566 0.067755 0.096057 0.069492 0.100700 0.064655 -0.077132 0.001120 -0.028212 -0.016601 0.036857 -0.133292 -0.048702 -0.045578 -0.065347 -0.058525 -0.035473 -0.063215 0.062564 0.047041 0.060148 -0.093000 0.049446 -0.005319 0.054183 0.043860 0.017147 -0.057781 -0.117239 0.010693 -0.049670 -0.063305 -0.007914 -0.015527 -0.092172 -0.110342 -0.018606 -0.056836 0.059381 -0.026037 -0.081353 -0.017587 -0.087839 0.015815 -0.032157 0.000546 0.005881 -0.001995 -0.059686 0.030751 -0.006448 -0.082950 -0.074780 0.018581 0.102066 0.024234 -0.043332 -0.015328 0.060642 -0.017585 -0.006221 -0.029647
the_line_ 0.008241 -0.033151 0.033468 0.009616 -0.036660 0.057795 -0.001723 -0.034400 -0.022086 0.048434 0.020523 0.019262 -0.016924 0.086847 -0.019405 0.010079 0.005435 -0.034635 0.010612 0.018926 0.019880 -0.046033 -0.004779 0.006312 -0.025071 -0.023372 0.015211 -0.006949 -0.002890 -0.006342 0.029779 -0.025347 -0.011123 0.012648 -0.046783 0.045592 -0.038454 0.017868 -0.075215 0.034810 0.045883 0.037910 0.046120 0.023320 -0.035567 0.001223 -0.018091 -0.012014 0.017047 -0.058609 -0.024408 -0.020172 -0.028926 -0.030593 -0.014428 -0.027391 0.027080 0.025012 0.028343 -0.048315 0.018050 -0.003047 0.023471 0.018945 0.004156 -0.028798 -0.054677 0.003268 -0.021657 -0.030345 0.002311 -0.012262 -0.044665 -0.055221 -0.013590 -0.029599 0.024712 -0.011145 -0.040034 -0.012752 -0.038135 0.003417 -0.014998 -0.003384 0.008817 -0.007034 -0.031312 0.009985 -0.001735 -0.037949 -0.032431 0.006882 0.046966 0.013617 -0.018000 -0.004571 0.028760 -0.007316 -0.002491 -0.015317
Europe_ 0.021937 -0.084009 0.083977 0.019790 -0.098887 0.149572 -0.007261 -0.067930 -0.048213 0.105607 0.042123 0.057609 -0.028664 0.200333 -0.036949 0.033246 0.001494 -0.089649 0.036790 0.036477 0.034986 -0.111880 -0.007101 0.019528 -0.057025 -0.063795 0.035219 -0.014876 -0.003491 -0.011456 0.055750 -0.052029 -0.026786 0.030156 -0.098985 0.101597 -0.099516 0.040014 -0.180933 0.072837 0.106789 0.082241 0.114245 0.064646 -0.083516 0.010257 -0.033066 -0.018104 0.039461 -0.143525 -0.056298 -0.054318 -0.067006 -0.057912 -0.034469 -0.064119 0.068531 0.057007 0.064772 -0.106150 0.052866 0.000737 0.050828 0.052388 0.019613 -0.074128 -0.130060 0.010262 -0.061326 -0.065531 -0.003769 -0.015218 -0.098480 -0.124205 -0.019462 -0.070545 0.060250 -0.031259 -0.089671 -0.020548 -0.100583 0.013591 -0.035086 0.007399 0.008751 -0.001201 -0.066383 0.032011 -0.007807 -0.092524 -0.086137 0.019596 0.108227 0.019256 -0.047230 -0.025886 0.067961 -0.028032 -0.007088 -0.033694
them_ 0.021359 -0.115171 0.104927 0.022467 -0.128925 0.188912 -0.012717 -0.090513 -0.065236 0.139902 0.055539 0.068487 -0.037156 0.259229 -0.055390 0.045900 0.000565 -0.110116 0.045660 0.040634 0.053346 -0.144086 -0.007523 0.035545 -0.069740 -0.082162 0.048549 -0.016509 -0.009558 -0.019836 0.074906 -0.073224 -0.031173 0.035283 -0.129453 0.134831 -0.133835 0.045888 -0.230946 0.099955 0.134379 0.105464 0.142156 0.085304 -0.116593 0.012735 -0.044593 -0.024103 0.058787 -0.187288 -0.062872 -0.065196 -0.093954 -0.079621 -0.048158 -0.085112 0.078739 0.069425 0.081472 -0.135440 0.063497 -0.009380 0.067273 0.059150 0.024791 -0.092564 -0.171436 0.020257 -0.068915 -0.084514 -0.012327 -0.023990 -0.130533 -0.155716 -0.027563 -0.089665 0.074435 -0.036231 -0.122343 -0.029211 -0.126226 0.012559 -0.048788 0.002454 0.012123 -0.011767 -0.089716 0.041174 -0.011766 -0.114314 -0.114928 0.028067 0.141032 0.024160 -0.066588 -0.030997 0.094019 -0.032282 -0.006948 -0.036017
information_ 0.029293 -0.118043 0.111540 0.025656 -0.127520 0.199934 -0.011503 -0.094103 -0.071267 0.147254 0.060491 0.072186 -0.044724 0.266126 -0.057050 0.046230 0.008840 -0.114601 0.046095 0.046962 0.051448 -0.153005 -0.008498 0.030495 -0.070680 -0.089783 0.053766 -0.019311 -0.003801 -0.016425 0.082764 -0.075390 -0.030873 0.038396 -0.138607 0.145152 -0.135635 0.051774 -0.238529 0.097078 0.142295 0.113912 0.149719 0.092868 -0.120698 0.006244 -0.039714 -0.026755 0.057352 -0.197172 -0.074192 -0.068378 -0.093142 -0.081348 -0.040621 -0.082584 0.084383 0.071247 0.088055 -0.143223 0.070436 -0.001740 0.076617 0.061644 0.025191 -0.091759 -0.176149 0.017720 -0.072482 -0.095712 -0.012594 -0.025563 -0.137123 -0.161703 -0.033207 -0.088091 0.081562 -0.042691 -0.125764 -0.031523 -0.133534 0.013372 -0.047686 0.006442 0.012102 -0.007324 -0.096605 0.046321 -0.014187 -0.119476 -0.112924 0.022874 0.147320 0.025759 -0.072699 -0.026081 0.092404 -0.027895 -0.006638 -0.039982
corruption_ 0.009146 -0.049466 0.043520 0.005674 -0.054215 0.071158 -0.006437 -0.037017 -0.028213 0.052814 0.025479 0.023967 -0.014065 0.104344 -0.025017 0.019995 0.004331 -0.047815 0.020317 0.018825 0.020243 -0.061819 0.000348 0.016773 -0.026727 -0.034139 0.015601 -0.007392 0.002091 -0.007809 0.031221 -0.027875 -0.008894 0.010175 -0.048978 0.058798 -0.055468 0.017613 -0.092398 0.034628 0.057418 0.040135 0.057732 0.032368 -0.044862 0.007951 -0.021243 -0.013026 0.025889 -0.077305 -0.024759 -0.022730 -0.039415 -0.030605 -0.013887 -0.035779 0.029259 0.026605 0.031709 -0.054643 0.026450 -0.002752 0.025899 0.029072 0.005363 -0.036794 -0.062154 0.010858 -0.025029 -0.036282 0.000161 -0.011720 -0.048133 -0.066223 -0.009192 -0.033014 0.035219 -0.012568 -0.049111 -0.006992 -0.048421 0.011145 -0.014397 -0.002085 0.005760 -0.006870 -0.033169 0.017643 -0.006549 -0.048614 -0.045837 0.012413 0.057996 0.012495 -0.029457 -0.016219 0.038437 -0.009274 -0.007047 -0.009963
Geography_ 0.012365 -0.060194 0.057185 0.012019 -0.071318 0.101100 -0.005471 -0.050727 -0.029982 0.076270 0.029674 0.041021 -0.021746 0.143346 -0.032431 0.018926 0.003869 -0.062639 0.022384 0.024077 0.029576 -0.080542 -0.008284 0.014822 -0.041106 -0.041017 0.031876 -0.011997 -0.000300 -0.009775 0.043014 -0.034413 -0.019467 0.019956 -0.067488 0.073171 -0.068730 0.020395 -0.122276 0.053049 0.073380 0.056709 0.081299 0.046269 -0.064635 0.000112 -0.020785 -0.018039 0.034936 -0.098776 -0.038157 -0.033211 -0.048778 -0.044701 -0.023859 -0.043983 0.042693 0.033848 0.045412 -0.070115 0.034874 -0.007749 0.039052 0.034084 0.012329 -0.051609 -0.090707 0.005792 -0.043595 -0.043915 0.000315 -0.015933 -0.069720 -0.090028 -0.018569 -0.051592 0.046041 -0.020677 -0.067073 -0.018047 -0.064649 0.005472 -0.025626 0.005237 0.011106 -0.005720 -0.049201 0.024448 -0.005428 -0.061108 -0.059515 0.015536 0.078326 0.012252 -0.036253 -0.015457 0.053293 -0.012227 -0.007654 -0.019178
September_ 0.023042 -0.090446 0.079171 0.023241 -0.094009 0.144728 -0.014846 -0.073619 -0.047230 0.107263 0.049165 0.053999 -0.029895 0.198164 -0.040167 0.032625 0.004629 -0.093889 0.034341 0.036358 0.043989 -0.115440 -0.003946 0.022963 -0.056999 -0.063085 0.034604 -0.016296 -0.001474 -0.013182 0.058785 -0.059509 -0.026282 0.023491 -0.105880 0.111001 -0.105716 0.032109 -0.183412 0.072516 0.105992 0.088131 0.113934 0.069929 -0.090898 0.007267 -0.032561 -0.022078 0.044695 -0.147791 -0.051210 -0.049488 -0.071079 -0.064560 -0.037674 -0.063601 0.067897 0.054681 0.070310 -0.104736 0.057397 -0.000710 0.056165 0.052050 0.017655 -0.068118 -0.126848 0.012186 -0.053412 -0.070167 -0.003094 -0.014265 -0.103528 -0.125323 -0.024591 -0.062867 0.058411 -0.024957 -0.090689 -0.015598 -0.101127 0.017750 -0.040365 0.003985 0.010462 -0.009924 -0.066063 0.029799 -0.010419 -0.089251 -0.083458 0.016947 0.111295 0.018512 -0.050966 -0.023569 0.075209 -0.020917 -0.007331 -0.027098
Indonesia_ 0.023491 -0.096007 0.087839 0.019377 -0.107462 0.161216 -0.009313 -0.077750 -0.056876 0.119159 0.046735 0.061674 -0.034235 0.211770 -0.039585 0.034760 0.006398 -0.098401 0.039053 0.037507 0.038615 -0.127422 -0.009267 0.031010 -0.054127 -0.066540 0.038971 -0.018334 -0.006339 -0.011413 0.069406 -0.059356 -0.024198 0.026386 -0.109936 0.113187 -0.109333 0.035703 -0.194943 0.079423 0.110676 0.087948 0.121871 0.074294 -0.092671 0.002138 -0.031312 -0.016182 0.051616 -0.152031 -0.053140 -0.052399 -0.078587 -0.062950 -0.036660 -0.073570 0.067209 0.053747 0.069111 -0.114297 0.053185 -0.008886 0.059459 0.049743 0.016338 -0.074650 -0.144222 0.015403 -0.058230 -0.077020 -0.003490 -0.018456 -0.112621 -0.132630 -0.022719 -0.076115 0.061711 -0.028365 -0.101312 -0.026589 -0.106486 0.015255 -0.037376 0.002602 0.006510 -0.002610 -0.074547 0.032219 -0.016024 -0.099117 -0.095730 0.018038 0.119704 0.025047 -0.055199 -0.026176 0.070335 -0.028167 -0.003875 -0.032821
the_association_ 0.020276 -0.081888 0.079286 0.015173 -0.094628 0.134233 -0.010672 -0.068784 -0.049344 0.102461 0.040649 0.053296 -0.025641 0.188476 -0.031716 0.030809 0.004488 -0.086618 0.026920 0.037013 0.031934 -0.102300 -0.011071 0.024853 -0.048018 -0.058258 0.035866 -0.018150 -0.001755 -0.013610 0.056863 -0.055018 -0.021837 0.021564 -0.094525 0.099866 -0.090297 0.029242 -0.167044 0.067715 0.094629 0.074496 0.107126 0.061003 -0.086027 0.004113 -0.033730 -0.016110 0.043204 -0.130944 -0.051503 -0.044168 -0.066845 -0.060253 -0.036206 -0.061305 0.061764 0.049084 0.058125 -0.101687 0.052013 -0.004328 0.055961 0.049557 0.013421 -0.060774 -0.123187 0.015738 -0.048564 -0.059312 -0.002089 -0.017866 -0.099681 -0.117703 -0.019983 -0.064355 0.057220 -0.026606 -0.085172 -0.015113 -0.089245 0.009179 -0.038500 -0.001434 0.011601 -0.000488 -0.063882 0.031773 -0.012335 -0.080481 -0.079272 0.018098 0.105593 0.020522 -0.051881 -0.016961 0.061791 -0.019605 -0.005442 -0.031954
radio_ 0.023253 -0.105860 0.097934 0.024466 -0.116990 0.171136 -0.013376 -0.087286 -0.063761 0.126354 0.053601 0.060611 -0.035602 0.237073 -0.047776 0.038230 0.000579 -0.107941 0.044755 0.044848 0.043280 -0.130995 -0.011678 0.029029 -0.061767 -0.073036 0.045599 -0.014434 -0.009583 -0.013074 0.076384 -0.068321 -0.026034 0.031999 -0.120292 0.125525 -0.124074 0.040506 -0.211409 0.092185 0.122012 0.096477 0.133427 0.080611 -0.108528 0.009816 -0.038453 -0.019355 0.047929 -0.173308 -0.063945 -0.055223 -0.083720 -0.075576 -0.039721 -0.082557 0.073858 0.065833 0.075357 -0.121373 0.061484 -0.002844 0.064996 0.058785 0.021935 -0.078709 -0.149660 0.019931 -0.063740 -0.082998 -0.004705 -0.024892 -0.120304 -0.143632 -0.031806 -0.084072 0.069942 -0.035733 -0.107193 -0.023637 -0.118332 0.018155 -0.047154 -0.000284 0.009879 -0.005599 -0.081811 0.038848 -0.017052 -0.110654 -0.102373 0.022196 0.127211 0.021034 -0.058718 -0.030453 0.087162 -0.031276 -0.012194 -0.037163
